FANN_FLO_2.1
num_layers=3
learning_rate=0.000001
connection_rate=1.000000
network_type=0
learning_momentum=0.900000
training_algorithm=0
train_error_function=1
train_stop_function=0
cascade_output_change_fraction=0.010000
quickprop_decay=-0.000100
quickprop_mu=1.750000
rprop_increase_factor=1.200000
rprop_decrease_factor=0.500000
rprop_delta_min=0.000000
rprop_delta_max=50.000000
rprop_delta_zero=0.100000
cascade_output_stagnation_epochs=12
cascade_candidate_change_fraction=0.010000
cascade_candidate_stagnation_epochs=12
cascade_max_out_epochs=150
cascade_min_out_epochs=50
cascade_max_cand_epochs=150
cascade_min_cand_epochs=50
cascade_num_candidate_groups=2
bit_fail_limit=0.00000000000000000000e+00
cascade_candidate_limit=1.00000000000000000000e+03
cascade_weight_multiplier=4.00000005960464477539e-01
cascade_activation_functions_count=10
cascade_activation_functions=3 5 7 8 10 11 14 15 16 17 
cascade_activation_steepnesses_count=4
cascade_activation_steepnesses=2.50000000000000000000e-01 5.00000000000000000000e-01 7.50000000000000000000e-01 1.00000000000000000000e+00 
layer_sizes=21 21 2 
scale_included=0
neurons (num_inputs, activation_function, activation_steepness)=(0, 0, 0.00000000000000000000e+00) (0, 0, 0.00000000000000000000e+00) (0, 0, 0.00000000000000000000e+00) (0, 0, 0.00000000000000000000e+00) (0, 0, 0.00000000000000000000e+00) (0, 0, 0.00000000000000000000e+00) (0, 0, 0.00000000000000000000e+00) (0, 0, 0.00000000000000000000e+00) (0, 0, 0.00000000000000000000e+00) (0, 0, 0.00000000000000000000e+00) (0, 0, 0.00000000000000000000e+00) (0, 0, 0.00000000000000000000e+00) (0, 0, 0.00000000000000000000e+00) (0, 0, 0.00000000000000000000e+00) (0, 0, 0.00000000000000000000e+00) (0, 0, 0.00000000000000000000e+00) (0, 0, 0.00000000000000000000e+00) (0, 0, 0.00000000000000000000e+00) (0, 0, 0.00000000000000000000e+00) (0, 0, 0.00000000000000000000e+00) (0, 0, 0.00000000000000000000e+00) (21, 4, 5.00000000000000000000e-01) (21, 4, 5.00000000000000000000e-01) (21, 4, 5.00000000000000000000e-01) (21, 4, 5.00000000000000000000e-01) (21, 4, 5.00000000000000000000e-01) (21, 4, 5.00000000000000000000e-01) (21, 4, 5.00000000000000000000e-01) (21, 4, 5.00000000000000000000e-01) (21, 4, 5.00000000000000000000e-01) (21, 4, 5.00000000000000000000e-01) (21, 4, 5.00000000000000000000e-01) (21, 4, 5.00000000000000000000e-01) (21, 4, 5.00000000000000000000e-01) (21, 4, 5.00000000000000000000e-01) (21, 4, 5.00000000000000000000e-01) (21, 4, 5.00000000000000000000e-01) (21, 4, 5.00000000000000000000e-01) (21, 4, 5.00000000000000000000e-01) (21, 4, 5.00000000000000000000e-01) (21, 4, 5.00000000000000000000e-01) (0, 0, 0.00000000000000000000e+00) (21, 18, 5.00000000000000000000e-01) (0, 18, 0.00000000000000000000e+00) 
connections (connected_to_neuron, weight)=(0, 4.91627007722854614258e-01) (1, 3.99222165346145629883e-01) (2, 3.26615631580352783203e-01) (3, 3.86269837617874145508e-01) (4, 7.47429998591542243958e-03) (5, 1.04560032486915588379e-01) (6, 1.16532936692237854004e-01) (7, 5.19435703754425048828e-01) (8, 5.17793536186218261719e-01) (9, 3.03792417049407958984e-01) (10, 1.90550372004508972168e-01) (11, 2.10464581847190856934e-01) (12, 9.19740647077560424805e-03) (13, 5.38437366485595703125e-01) (14, 3.84336709976196289062e-01) (15, 3.77061739563941955566e-02) (16, 4.42388564348220825195e-01) (17, 1.13173820078372955322e-01) (18, 5.45158088207244873047e-01) (19, 3.75400096178054809570e-01) (20, 3.48018765449523925781e-01) (0, 3.38338911533355712891e-01) (1, 1.68567541986703872681e-02) (2, 3.29954147338867187500e-01) (3, 1.42744584009051322937e-02) (4, 2.89378464221954345703e-01) (5, 4.09645408391952514648e-01) (6, 3.57997655868530273438e-01) (7, 8.58849585056304931641e-02) (8, 3.44937369227409362793e-02) (9, 8.05718004703521728516e-02) (10, 3.09018254280090332031e-01) (11, 1.60147175192832946777e-01) (12, 4.16460961103439331055e-01) (13, 2.31334909796714782715e-01) (14, 4.73008424043655395508e-01) (15, 1.25666424632072448730e-01) (16, 5.54320216178894042969e-01) (17, 3.20007324218750000000e-01) (18, 2.92599690146744251251e-03) (19, 1.11885622143745422363e-01) (20, -5.62991559505462646484e-01) (0, 5.68394124507904052734e-01) (1, 9.15385335683822631836e-02) (2, 3.46652835607528686523e-01) (3, 5.40051817893981933594e-01) (4, 1.32880955934524536133e-01) (5, 2.86670029163360595703e-01) (6, 5.30876636505126953125e-01) (7, 5.38628578186035156250e-01) (8, 1.74318015575408935547e-01) (9, 1.05313070118427276611e-01) (10, 2.21179634332656860352e-01) (11, 3.81054997444152832031e-01) (12, 2.22873419523239135742e-01) (13, 3.21952223777770996094e-01) (14, 1.70589879155158996582e-01) (15, 2.04674243927001953125e-01) (16, 2.51243978738784790039e-01) (17, 1.85434222221374511719e-01) (18, 3.73118996620178222656e-01) (19, 3.45863848924636840820e-01) (20, 2.33842968940734863281e-01) (0, 4.88662093877792358398e-01) (1, 2.03655794262886047363e-01) (2, 2.50110119581222534180e-01) (3, 5.26370108127593994141e-01) (4, 1.06817848980426788330e-01) (5, 4.08866167068481445312e-01) (6, 3.83077889680862426758e-01) (7, 5.60622572898864746094e-01) (8, 1.25503376126289367676e-01) (9, 9.60596874356269836426e-02) (10, 4.53537762165069580078e-01) (11, 3.65123212337493896484e-01) (12, 3.49132455885410308838e-02) (13, 2.84897267818450927734e-01) (14, 4.03676718473434448242e-01) (15, 4.54966127872467041016e-01) (16, 4.09051030874252319336e-01) (17, 6.76100328564643859863e-02) (18, 4.02069687843322753906e-01) (19, 2.60709136724472045898e-01) (20, -3.92080962657928466797e-01) (0, 2.27627247571945190430e-01) (1, 3.45824629068374633789e-01) (2, 3.13530147075653076172e-01) (3, 1.11778609454631805420e-01) (4, 4.87490266561508178711e-01) (5, 4.77365016937255859375e-01) (6, 3.19996297359466552734e-01) (7, 3.88225138187408447266e-01) (8, 3.50328594446182250977e-01) (9, 1.31805226206779479980e-01) (10, 4.63746547698974609375e-01) (11, 2.15166330337524414062e-01) (12, 2.98770487308502197266e-01) (13, 2.25226655602455139160e-01) (14, 5.06547868251800537109e-01) (15, 1.42438843846321105957e-01) (16, 3.71410436928272247314e-02) (17, 7.26900771260261535645e-02) (18, 2.03208088874816894531e-01) (19, 1.42139017581939697266e-01) (20, -3.04872840642929077148e-01) (0, 5.24253606796264648438e-01) (1, 4.77830559015274047852e-01) (2, 1.56556546688079833984e-01) (3, 5.44936418533325195312e-01) (4, 7.26312696933746337891e-02) (5, 3.55913490056991577148e-01) (6, 4.30373877286911010742e-01) (7, 1.49228781461715698242e-01) (8, 5.02875931560993194580e-02) (9, 2.32675284147262573242e-01) (10, 1.79938957095146179199e-01) (11, 4.39579904079437255859e-01) (12, 2.61769831180572509766e-01) (13, 2.29517340660095214844e-01) (14, 1.63117349147796630859e-01) (15, 1.29633367061614990234e-01) (16, 4.74926382303237915039e-01) (17, 4.11555022001266479492e-01) (18, 5.03457069396972656250e-01) (19, 1.12934663891792297363e-01) (20, 4.67976868152618408203e-01) (0, 2.85019725561141967773e-01) (1, 1.79991662502288818359e-01) (2, 1.84376806020736694336e-01) (3, 2.87366688251495361328e-01) (4, 2.58660376071929931641e-01) (5, 4.58064258098602294922e-01) (6, 5.61958789825439453125e-01) (7, 3.32804620265960693359e-01) (8, 5.68735301494598388672e-01) (9, 1.20581306517124176025e-01) (10, 9.72718223929405212402e-02) (11, 2.87054061889648437500e-01) (12, 1.39054551720619201660e-01) (13, 2.10165306925773620605e-01) (14, 1.14171095192432403564e-01) (15, 1.90463632345199584961e-01) (16, 4.64449435472488403320e-01) (17, 4.77160513401031494141e-02) (18, 3.72889369726181030273e-01) (19, 4.80319470167160034180e-01) (20, 1.07993662357330322266e-01) (0, 1.00718848407268524170e-01) (1, 2.73506529629230499268e-02) (2, 4.07977670431137084961e-01) (3, 2.84042447805404663086e-01) (4, 2.99773484468460083008e-01) (5, 5.37355005741119384766e-01) (6, 4.49507445096969604492e-01) (7, 5.20707488059997558594e-01) (8, 2.13607355952262878418e-01) (9, 3.41170579195022583008e-01) (10, 2.54626333713531494141e-01) (11, 5.50471067428588867188e-01) (12, 9.70043092966079711914e-02) (13, 3.55015337467193603516e-01) (14, 1.68244093656539916992e-01) (15, 1.45545050501823425293e-01) (16, 3.25213521718978881836e-01) (17, 2.12588265538215637207e-01) (18, 3.29199761152267456055e-01) (19, 4.57373768091201782227e-01) (20, 1.64273083209991455078e-01) (0, 7.79247432947158813477e-02) (1, 3.21025788784027099609e-01) (2, 4.03754319995641708374e-03) (3, 5.36774754524230957031e-01) (4, 3.96710872650146484375e-01) (5, 3.38084340095520019531e-01) (6, 3.02436351776123046875e-01) (7, 2.20608681440353393555e-01) (8, 4.84003096818923950195e-01) (9, 6.19590394198894500732e-02) (10, 1.33298560976982116699e-01) (11, 4.58868682384490966797e-01) (12, 3.89116793870925903320e-01) (13, 5.02374410629272460938e-01) (14, 1.73926025629043579102e-01) (15, 3.63622486591339111328e-01) (16, 4.86084282398223876953e-01) (17, 2.38813653588294982910e-01) (18, 8.20424333214759826660e-02) (19, 4.93361115455627441406e-01) (20, 3.24787735939025878906e-01) (0, 2.36616864800453186035e-01) (1, 2.44694560766220092773e-01) (2, 2.21108883619308471680e-01) (3, 3.33140909671783447266e-01) (4, 5.15203952789306640625e-01) (5, 1.40308827161788940430e-01) (6, 1.81328237056732177734e-01) (7, 3.97697091102600097656e-01) (8, 3.68054956197738647461e-01) (9, 2.42902427911758422852e-01) (10, 3.38765531778335571289e-01) (11, 3.40696632862091064453e-01) (12, 2.76525080204010009766e-01) (13, 4.21173721551895141602e-02) (14, 4.12865221500396728516e-01) (15, 2.73235410451889038086e-01) (16, 9.39818173646926879883e-02) (17, 3.32863718271255493164e-01) (18, 4.21200543642044067383e-01) (19, 1.53480116277933120728e-02) (20, -4.19098347425460815430e-01) (0, 2.57160484790802001953e-01) (1, 3.52523267269134521484e-01) (2, 5.03275930881500244141e-01) (3, 4.92048889398574829102e-01) (4, 7.28361979126930236816e-02) (5, 3.77033650875091552734e-01) (6, 5.28562903404235839844e-01) (7, 4.46916371583938598633e-01) (8, 3.31906497478485107422e-01) (9, 3.07503014802932739258e-01) (10, 3.67413461208343505859e-01) (11, 3.01834523677825927734e-01) (12, 3.74612092971801757812e-01) (13, 3.37503194808959960938e-01) (14, 2.34118863940238952637e-01) (15, 4.79943543672561645508e-01) (16, 2.96639889478683471680e-01) (17, 3.59103798866271972656e-01) (18, 4.20345753431320190430e-01) (19, 4.82615023851394653320e-01) (20, -3.21138978004455566406e-01) (0, 1.87600091099739074707e-01) (1, 2.61120349168777465820e-01) (2, 1.54199987649917602539e-01) (3, 3.04432541131973266602e-01) (4, 1.09542571008205413818e-01) (5, 5.60965001583099365234e-01) (6, 1.76295936107635498047e-01) (7, 2.57781267166137695312e-01) (8, 5.16340732574462890625e-01) (9, 4.19673323631286621094e-01) (10, 2.07177791744470596313e-02) (11, 1.82093873620033264160e-01) (12, 1.43558740615844726562e-01) (13, 3.19589227437973022461e-02) (14, 2.67468333244323730469e-01) (15, 1.56046092510223388672e-01) (16, 5.23367643356323242188e-01) (17, 4.21111404895782470703e-01) (18, 2.28677600622177124023e-01) (19, 3.13027024269104003906e-01) (20, -1.43639892339706420898e-01) (0, 4.43113863468170166016e-01) (1, 3.22337210178375244141e-01) (2, 3.65244597196578979492e-01) (3, 3.62858891487121582031e-01) (4, 2.03768983483314514160e-01) (5, 4.40756678581237792969e-01) (6, 7.12910965085029602051e-02) (7, 8.22510868310928344727e-02) (8, 6.41707750037312507629e-03) (9, 2.21699886023998260498e-02) (10, 5.66887967288494110107e-02) (11, 5.58659791946411132812e-01) (12, 2.27977782487869262695e-01) (13, 5.32058775424957275391e-01) (14, 4.38582658767700195312e-01) (15, 4.69193756580352783203e-02) (16, 1.05274125933647155762e-01) (17, 1.37177392840385437012e-01) (18, 3.97583171725273132324e-02) (19, 1.30585327744483947754e-01) (20, 4.29114520549774169922e-01) (0, 4.60647158324718475342e-02) (1, 4.25538793206214904785e-03) (2, 2.04396605491638183594e-01) (3, 1.49270296096801757812e-01) (4, 1.77458971738815307617e-01) (5, 4.06999051570892333984e-01) (6, 3.81913751363754272461e-01) (7, 3.92633259296417236328e-01) (8, 2.68567413091659545898e-01) (9, 3.71407747268676757812e-01) (10, 1.11462928354740142822e-01) (11, 3.16463649272918701172e-01) (12, 3.49751353263854980469e-01) (13, 1.28437921404838562012e-01) (14, 3.51477771997451782227e-01) (15, 4.77810837328433990479e-02) (16, 3.24811547994613647461e-01) (17, 3.02454113960266113281e-01) (18, 5.19068717956542968750e-01) (19, 5.54429963231086730957e-02) (20, -2.51550287008285522461e-01) (0, 1.85854405164718627930e-01) (1, 1.82408485561609268188e-02) (2, 2.00804308056831359863e-01) (3, 2.49195531010627746582e-01) (4, 5.59262931346893310547e-01) (5, 9.56794843077659606934e-02) (6, 3.39202314615249633789e-01) (7, 2.64980077743530273438e-01) (8, 5.55090427398681640625e-01) (9, 1.42866164445877075195e-01) (10, 3.72925192117691040039e-01) (11, 5.11958837509155273438e-01) (12, 3.70394766330718994141e-01) (13, 2.02355936169624328613e-01) (14, 8.33427980542182922363e-02) (15, 9.81072932481765747070e-02) (16, 6.54785931110382080078e-02) (17, 5.22220969200134277344e-01) (18, 5.46969592571258544922e-01) (19, 1.24805821105837821960e-02) (20, 1.84772551059722900391e-01) (0, 4.62535619735717773438e-02) (1, 3.25492888689041137695e-01) (2, 3.43406885862350463867e-01) (3, 1.85478314757347106934e-01) (4, 5.43522000312805175781e-01) (5, 2.62802690267562866211e-01) (6, 4.73354816436767578125e-01) (7, 2.42360234260559082031e-01) (8, 3.54450285434722900391e-01) (9, 3.70800912380218505859e-01) (10, 1.81449964642524719238e-01) (11, 1.61393493413925170898e-01) (12, 2.53910303115844726562e-01) (13, 4.97400641441345214844e-01) (14, 4.46933776140213012695e-01) (15, 5.42533509433269500732e-02) (16, 1.33527636528015136719e-01) (17, 3.15317541360855102539e-01) (18, 4.84861373901367187500e-01) (19, 2.23918229341506958008e-01) (20, -1.78513288497924804688e-01) (0, 6.49131089448928833008e-02) (1, 1.46552577614784240723e-01) (2, 1.42914280295372009277e-01) (3, 4.05999198555946350098e-02) (4, 1.22844865545630455017e-02) (5, 5.05014121532440185547e-01) (6, 3.79836037755012512207e-02) (7, 5.40928542613983154297e-01) (8, 3.41099612414836883545e-02) (9, 4.76765304803848266602e-01) (10, 5.09395062923431396484e-01) (11, 7.05936849117279052734e-02) (12, 3.41853260993957519531e-01) (13, 3.18471968173980712891e-01) (14, 4.41805213689804077148e-01) (15, 7.98753742128610610962e-03) (16, 1.72624513506889343262e-01) (17, 1.69126570224761962891e-01) (18, 1.43592044711112976074e-01) (19, 2.11524907499551773071e-02) (20, -4.27705854177474975586e-01) (0, 3.80807101726531982422e-01) (1, 4.98225912451744079590e-02) (2, 4.04857814311981201172e-01) (3, 3.37582021951675415039e-01) (4, 4.17876422405242919922e-01) (5, 5.87472654879093170166e-02) (6, 3.53176414966583251953e-01) (7, 7.04978480935096740723e-02) (8, 4.42790418863296508789e-01) (9, 2.08208728581666946411e-02) (10, 2.03216269612312316895e-01) (11, 2.79737293720245361328e-01) (12, 4.00107473134994506836e-01) (13, 3.72270137071609497070e-01) (14, 3.42310547828674316406e-01) (15, 1.68846957385540008545e-02) (16, 2.29027435183525085449e-01) (17, 4.87343668937683105469e-01) (18, 2.96073764562606811523e-01) (19, 5.43362379074096679688e-01) (20, 2.94214367866516113281e-01) (0, 5.02989590167999267578e-02) (1, 4.23757255077362060547e-01) (2, 1.95974081754684448242e-01) (3, 8.25199782848358154297e-02) (4, 5.32054543495178222656e-01) (5, 3.67104440927505493164e-01) (6, 2.42660090327262878418e-01) (7, 2.59317785501480102539e-01) (8, 9.64920520782470703125e-02) (9, 3.03378164768218994141e-01) (10, 7.43001103401184082031e-02) (11, 4.48349982500076293945e-01) (12, 4.64610576629638671875e-01) (13, 4.73876565694808959961e-01) (14, 4.53215986490249633789e-01) (15, 9.15007218718528747559e-02) (16, 2.81703382730484008789e-01) (17, 3.53791385889053344727e-01) (18, 1.36390000581741333008e-01) (19, 4.98834729194641113281e-01) (20, -5.36249339580535888672e-01) (0, 5.08710682392120361328e-01) (1, 5.49305617809295654297e-01) (2, 4.77502256631851196289e-01) (3, 3.43739002943038940430e-01) (4, 6.25539347529411315918e-02) (5, 4.32732582092285156250e-01) (6, 4.25413697957992553711e-01) (7, 8.09638351202011108398e-02) (8, 5.16598857939243316650e-02) (9, 4.75781887769699096680e-01) (10, 5.26714920997619628906e-01) (11, 1.96716248989105224609e-01) (12, 4.59534395486116409302e-03) (13, 2.12770178914070129395e-01) (14, 5.34075260162353515625e-01) (15, 9.73101779818534851074e-02) (16, 3.60991835594177246094e-01) (17, 2.02975437045097351074e-01) (18, 2.25776687264442443848e-01) (19, 5.18927834928035736084e-02) (20, 2.22218215465545654297e-01) (21, 3.60203325748443603516e-01) (22, 7.25610703229904174805e-02) (23, 3.17157447338104248047e-01) (24, 2.89452429860830307007e-02) (25, 3.93492996692657470703e-01) (26, 4.55500245094299316406e-01) (27, 2.57737159729003906250e-01) (28, 3.45410853624343872070e-01) (29, 2.05227896571159362793e-01) (30, 4.27976250648498535156e-01) (31, 3.59524190425872802734e-01) (32, 6.89102485775947570801e-02) (33, 4.15911246091127395630e-03) (34, 2.97876924276351928711e-01) (35, 4.09736819565296173096e-02) (36, 1.82371810078620910645e-02) (37, 1.39189600944519042969e-01) (38, 1.97883114218711853027e-01) (39, 2.18178361654281616211e-01) (40, 1.45218133926391601562e-01) (41, 5.01416742801666259766e-01) 
