FANN_FLO_2.1
num_layers=3
learning_rate=0.900000
connection_rate=1.000000
network_type=0
learning_momentum=0.900000
training_algorithm=1
train_error_function=1
train_stop_function=0
cascade_output_change_fraction=0.010000
quickprop_decay=-0.000100
quickprop_mu=1.750000
rprop_increase_factor=1.200000
rprop_decrease_factor=0.500000
rprop_delta_min=0.000000
rprop_delta_max=50.000000
rprop_delta_zero=0.100000
cascade_output_stagnation_epochs=12
cascade_candidate_change_fraction=0.010000
cascade_candidate_stagnation_epochs=12
cascade_max_out_epochs=150
cascade_min_out_epochs=50
cascade_max_cand_epochs=150
cascade_min_cand_epochs=50
cascade_num_candidate_groups=2
bit_fail_limit=3.49999994039535522461e-01
cascade_candidate_limit=1.00000000000000000000e+03
cascade_weight_multiplier=4.00000005960464477539e-01
cascade_activation_functions_count=10
cascade_activation_functions=3 5 7 8 10 11 14 15 16 17 
cascade_activation_steepnesses_count=4
cascade_activation_steepnesses=2.50000000000000000000e-01 5.00000000000000000000e-01 7.50000000000000000000e-01 1.00000000000000000000e+00 
layer_sizes=21 21 4 
scale_included=0
neurons (num_inputs, activation_function, activation_steepness)=(0, 0, 0.00000000000000000000e+00) (0, 0, 0.00000000000000000000e+00) (0, 0, 0.00000000000000000000e+00) (0, 0, 0.00000000000000000000e+00) (0, 0, 0.00000000000000000000e+00) (0, 0, 0.00000000000000000000e+00) (0, 0, 0.00000000000000000000e+00) (0, 0, 0.00000000000000000000e+00) (0, 0, 0.00000000000000000000e+00) (0, 0, 0.00000000000000000000e+00) (0, 0, 0.00000000000000000000e+00) (0, 0, 0.00000000000000000000e+00) (0, 0, 0.00000000000000000000e+00) (0, 0, 0.00000000000000000000e+00) (0, 0, 0.00000000000000000000e+00) (0, 0, 0.00000000000000000000e+00) (0, 0, 0.00000000000000000000e+00) (0, 0, 0.00000000000000000000e+00) (0, 0, 0.00000000000000000000e+00) (0, 0, 0.00000000000000000000e+00) (0, 0, 0.00000000000000000000e+00) (21, 3, 5.00000000000000000000e-01) (21, 3, 5.00000000000000000000e-01) (21, 3, 5.00000000000000000000e-01) (21, 3, 5.00000000000000000000e-01) (21, 3, 5.00000000000000000000e-01) (21, 3, 5.00000000000000000000e-01) (21, 3, 5.00000000000000000000e-01) (21, 3, 5.00000000000000000000e-01) (21, 3, 5.00000000000000000000e-01) (21, 3, 5.00000000000000000000e-01) (21, 3, 5.00000000000000000000e-01) (21, 3, 5.00000000000000000000e-01) (21, 3, 5.00000000000000000000e-01) (21, 3, 5.00000000000000000000e-01) (21, 3, 5.00000000000000000000e-01) (21, 3, 5.00000000000000000000e-01) (21, 3, 5.00000000000000000000e-01) (21, 3, 5.00000000000000000000e-01) (21, 3, 5.00000000000000000000e-01) (21, 3, 5.00000000000000000000e-01) (0, 3, 0.00000000000000000000e+00) (21, 3, 5.00000000000000000000e-01) (21, 3, 5.00000000000000000000e-01) (21, 3, 5.00000000000000000000e-01) (0, 3, 0.00000000000000000000e+00) 
connections (connected_to_neuron, weight)=(0, 3.66165667772293090820e-01) (1, 3.43478232622146606445e-01) (2, 5.40430188179016113281e-01) (3, 1.14745542407035827637e-01) (4, 4.43484693765640258789e-01) (5, 8.45062434673309326172e-02) (6, 2.45283722877502441406e-01) (7, 2.38923445343971252441e-01) (8, 3.34987252950668334961e-01) (9, 5.00044703483581542969e-01) (10, 2.63436973094940185547e-01) (11, 1.47411972284317016602e-01) (12, 1.96619331836700439453e-01) (13, 4.79962229728698730469e-01) (14, 5.25231540203094482422e-01) (15, 4.73513305187225341797e-01) (16, 1.52068376541137695312e-01) (17, 1.30732685327529907227e-01) (18, 2.05839037895202636719e-01) (19, 1.51637211441993713379e-01) (20, -2.50245869159698486328e-01) (0, 3.85542988777160644531e-01) (1, 1.36773511767387390137e-01) (2, 5.34324944019317626953e-01) (3, 4.02957051992416381836e-01) (4, 2.05861076712608337402e-01) (5, 4.11786556243896484375e-01) (6, 4.45229291915893554688e-01) (7, 1.97424203157424926758e-01) (8, 2.95697212219238281250e-01) (9, 4.55475971102714538574e-02) (10, 2.85693239420652389526e-02) (11, 1.24661482870578765869e-01) (12, 2.78593778610229492188e-01) (13, 3.06367129087448120117e-01) (14, 5.21579146385192871094e-01) (15, 4.84783463180065155029e-02) (16, 1.09688580036163330078e-01) (17, 9.54966470599174499512e-02) (18, 2.83021360635757446289e-01) (19, 5.51477968692779541016e-01) (20, 7.68499448895454406738e-02) (0, 4.59212660789489746094e-01) (1, 1.70816510915756225586e-01) (2, 1.99936218559741973877e-02) (3, 4.61557477712631225586e-01) (4, 1.40913814306259155273e-01) (5, 2.79179334640502929688e-01) (6, 1.72563821077346801758e-01) (7, 5.05669951438903808594e-01) (8, 4.42711770534515380859e-01) (9, 4.14318114519119262695e-01) (10, 3.02686132490634918213e-02) (11, 2.70999401807785034180e-01) (12, 2.62024879455566406250e-01) (13, 3.08495312929153442383e-01) (14, 8.75872150063514709473e-02) (15, 7.64027014374732971191e-02) (16, 2.13052317500114440918e-01) (17, 4.35110509395599365234e-01) (18, 3.91125828027725219727e-02) (19, 2.14566905051469802856e-02) (20, 5.56603193283081054688e-01) (0, 2.78502196073532104492e-01) (1, 1.86705365777015686035e-01) (2, 2.89815038442611694336e-01) (3, 4.63902354240417480469e-01) (4, 4.53194409608840942383e-01) (5, 3.75139206647872924805e-01) (6, 4.81647193431854248047e-01) (7, 5.41086830198764801025e-02) (8, 4.89001236855983734131e-02) (9, 2.55192607641220092773e-01) (10, 7.30325505137443542480e-02) (11, 4.63481158018112182617e-01) (12, 3.32120329141616821289e-01) (13, 5.45944929122924804688e-01) (14, 5.24367034435272216797e-01) (15, 4.26315933465957641602e-01) (16, 1.59224629402160644531e-01) (17, 3.00299614667892456055e-01) (18, 1.91663831472396850586e-01) (19, 1.31390139460563659668e-01) (20, -2.95454353094100952148e-01) (0, 4.17861312627792358398e-01) (1, 2.48406127095222473145e-01) (2, 1.84851199388504028320e-01) (3, 3.71941149234771728516e-01) (4, 1.75091475248336791992e-01) (5, 3.40083658695220947266e-01) (6, 4.67266403138637542725e-02) (7, 2.09953233599662780762e-01) (8, 5.53560256958007812500e-01) (9, 4.87275779247283935547e-01) (10, -6.36513752397149801254e-04) (11, 5.40287256240844726562e-01) (12, 4.40431773662567138672e-01) (13, 2.14251667261123657227e-01) (14, 1.93699419498443603516e-01) (15, 6.61867186427116394043e-02) (16, 2.34854504466056823730e-01) (17, 2.82912939786911010742e-01) (18, 4.66655284166336059570e-01) (19, 5.06984055042266845703e-01) (20, 6.75543025135993957520e-02) (0, 4.09960970282554626465e-02) (1, 4.90096718072891235352e-01) (2, 4.18059855699539184570e-01) (3, 4.36740964651107788086e-01) (4, 1.35207265615463256836e-01) (5, 1.45004898309707641602e-01) (6, 2.25840032100677490234e-01) (7, 2.21952214837074279785e-01) (8, 2.22805038094520568848e-01) (9, 5.32404668629169464111e-02) (10, 4.64830756187438964844e-01) (11, 3.74753355979919433594e-01) (12, 3.29708397388458251953e-01) (13, 4.68787312507629394531e-01) (14, 2.56848007440567016602e-01) (15, 3.48727740347385406494e-02) (16, 3.17517429590225219727e-01) (17, 4.52154994010925292969e-01) (18, 1.66715011000633239746e-02) (19, 4.64848071336746215820e-01) (20, 2.31137759983539581299e-02) (0, 3.66218715906143188477e-01) (1, 2.27617636322975158691e-01) (2, 3.44726383686065673828e-01) (3, 8.37566033005714416504e-02) (4, 9.23195928335189819336e-02) (5, 1.88099473714828491211e-01) (6, 1.56475648283958435059e-01) (7, 3.87869000434875488281e-01) (8, 2.43670791387557983398e-01) (9, 7.92429745197296142578e-02) (10, 4.21541005373001098633e-01) (11, 1.26639977097511291504e-01) (12, 4.74697947502136230469e-01) (13, 3.24622154235839843750e-01) (14, 4.98502254486083984375e-02) (15, 2.47664272785186767578e-01) (16, 4.98941063880920410156e-01) (17, 2.22997814416885375977e-01) (18, 3.27242523431777954102e-01) (19, 1.88900120556354522705e-02) (20, 3.50647181272506713867e-01) (0, 2.48488739132881164551e-01) (1, 5.42475283145904541016e-01) (2, 3.45512807369232177734e-01) (3, 2.71748453378677368164e-01) (4, 3.50781112909317016602e-01) (5, 4.83501225709915161133e-01) (6, 5.02300977706909179688e-01) (7, 4.05546948313713073730e-02) (8, 1.19642809033393859863e-01) (9, 1.50296866893768310547e-01) (10, 2.29797616600990295410e-01) (11, 2.64460325241088867188e-01) (12, 2.31128439307212829590e-01) (13, 2.62747555971145629883e-01) (14, 4.79540497064590454102e-01) (15, 1.58173844218254089355e-01) (16, 2.26057633757591247559e-01) (17, 4.77753840386867523193e-02) (18, 2.11093798279762268066e-01) (19, 2.89519637823104858398e-01) (20, 4.05216962099075317383e-01) (0, 4.79069262742996215820e-01) (1, 7.09028840065002441406e-02) (2, 5.08923590183258056641e-01) (3, 3.04373890161514282227e-01) (4, 1.84178143739700317383e-01) (5, 5.66148638725280761719e-01) (6, 1.98125854134559631348e-01) (7, 1.77761524915695190430e-01) (8, 5.26588141918182373047e-01) (9, 5.56499302387237548828e-01) (10, 2.12836831808090209961e-01) (11, 4.39932793378829956055e-01) (12, 6.21584616601467132568e-02) (13, 3.09371381998062133789e-01) (14, 2.02104240655899047852e-01) (15, 9.34103969484567642212e-04) (16, 1.27154543995857238770e-01) (17, 6.23856335878372192383e-02) (18, 2.28135302662849426270e-01) (19, 3.16374115645885467529e-02) (20, 1.29820600152015686035e-01) (0, 3.35590451955795288086e-01) (1, 3.45258653163909912109e-01) (2, 1.24182160943746566772e-02) (3, 4.79083776473999023438e-01) (4, 2.62009762227535247803e-02) (5, 2.53778278827667236328e-01) (6, 5.14298021793365478516e-01) (7, 9.20015424489974975586e-02) (8, 4.47883009910583496094e-01) (9, 4.01721179485321044922e-01) (10, 3.25133949518203735352e-01) (11, 2.88399755954742431641e-01) (12, 1.59272402524948120117e-01) (13, 4.91116434335708618164e-01) (14, 4.81992661952972412109e-01) (15, 5.33526718616485595703e-01) (16, 2.94165939092636108398e-01) (17, 5.50583899021148681641e-01) (18, 4.89064306020736694336e-02) (19, 4.35140669345855712891e-01) (20, 2.45315983891487121582e-01) (0, 4.81519550085067749023e-01) (1, 2.98797696828842163086e-01) (2, 4.38400179147720336914e-01) (3, 7.62649253010749816895e-02) (4, 4.59772408008575439453e-01) (5, 5.28217494487762451172e-01) (6, 4.30373162031173706055e-01) (7, 3.45972329378128051758e-01) (8, 2.57270127534866333008e-01) (9, 9.94174480438232421875e-02) (10, 3.39814692735671997070e-01) (11, 4.62304860353469848633e-01) (12, 7.89379887282848358154e-03) (13, 2.64413654804229736328e-01) (14, 2.97359168529510498047e-01) (15, 1.67198508977890014648e-01) (16, 2.22938489168882369995e-02) (17, 7.68866091966629028320e-02) (18, 3.88943821191787719727e-01) (19, 3.42318266630172729492e-01) (20, 1.41647011041641235352e-01) (0, 1.08684971928596496582e-01) (1, 3.73715013265609741211e-01) (2, 1.23313635587692260742e-01) (3, 7.52665400505065917969e-02) (4, 4.78677779436111450195e-01) (5, 2.49610189348459243774e-02) (6, 2.16389849781990051270e-01) (7, 4.22976702451705932617e-01) (8, 2.12770283222198486328e-01) (9, 2.41009324789047241211e-01) (10, 4.39489245414733886719e-01) (11, 2.75895167142152786255e-02) (12, 2.87348181009292602539e-01) (13, 2.28432953357696533203e-01) (14, 1.59182846546173095703e-01) (15, 2.69539564847946166992e-01) (16, 3.59518498182296752930e-01) (17, 2.72248476743698120117e-01) (18, 9.85375419259071350098e-02) (19, 3.87567847967147827148e-01) (20, -7.08195716142654418945e-02) (0, 1.72568663954734802246e-01) (1, 1.18126221001148223877e-01) (2, 2.17594951391220092773e-01) (3, 1.69768542051315307617e-01) (4, 4.99041795730590820312e-01) (5, 4.89321686327457427979e-02) (6, 8.74622389674186706543e-02) (7, 1.61660224199295043945e-01) (8, 4.60070580244064331055e-01) (9, 1.34319350123405456543e-01) (10, 4.11313176155090332031e-01) (11, 2.99696296453475952148e-01) (12, 3.39348345994949340820e-01) (13, 1.96828305721282958984e-01) (14, 1.07809551060199737549e-01) (15, 1.08350314199924468994e-01) (16, 1.69335436075925827026e-02) (17, 9.92908626794815063477e-02) (18, 3.98717939853668212891e-01) (19, 3.70982568711042404175e-04) (20, -4.97699648141860961914e-01) (0, 5.20937144756317138672e-01) (1, 4.99852120876312255859e-01) (2, 4.92751300334930419922e-01) (3, 3.18880885839462280273e-01) (4, 3.52093070745468139648e-01) (5, 3.38506549596786499023e-01) (6, 2.57760912179946899414e-01) (7, 1.79010346531867980957e-01) (8, 4.62705999612808227539e-01) (9, 2.07886680960655212402e-01) (10, 5.40389060974121093750e-01) (11, 3.70203107595443725586e-01) (12, 1.31819769740104675293e-01) (13, 1.62985339760780334473e-01) (14, 1.30395546555519104004e-01) (15, 1.13723866641521453857e-01) (16, 2.32993394136428833008e-01) (17, 1.80382728576660156250e-01) (18, 4.11146014928817749023e-01) (19, 2.44795873761177062988e-01) (20, 4.14334148168563842773e-01) (0, 1.55517697334289550781e-01) (1, 4.70210403203964233398e-01) (2, 5.62835514545440673828e-01) (3, 5.50631999969482421875e-01) (4, 3.95489335060119628906e-01) (5, 2.33582049608230590820e-01) (6, 3.61994951963424682617e-01) (7, 2.51159965991973876953e-01) (8, 5.20830869674682617188e-01) (9, 3.89037758111953735352e-01) (10, 1.28853231668472290039e-01) (11, 1.96446239948272705078e-01) (12, 3.70314955711364746094e-01) (13, 1.02376498281955718994e-01) (14, 1.96351677179336547852e-01) (15, 2.06754952669143676758e-01) (16, 4.02082622051239013672e-01) (17, 2.43301436305046081543e-01) (18, 4.35878694057464599609e-01) (19, 4.73761558532714843750e-01) (20, 1.75474882125854492188e-01) (0, 3.75704690814018249512e-02) (1, 3.86175721883773803711e-01) (2, 2.14757740497589111328e-01) (3, 2.20037788152694702148e-01) (4, 3.19071441888809204102e-01) (5, 7.44991749525070190430e-02) (6, 3.25080603361129760742e-02) (7, 4.95322197675704956055e-01) (8, 3.53457242250442504883e-01) (9, 1.48071423172950744629e-01) (10, 4.85261470079421997070e-01) (11, 2.81964331865310668945e-01) (12, 2.24263280630111694336e-01) (13, 1.20354741811752319336e-02) (14, 3.07761520147323608398e-01) (15, 4.66320812702178955078e-01) (16, 4.78659242391586303711e-01) (17, 2.40620329976081848145e-01) (18, 9.09830555319786071777e-02) (19, 4.25857156515121459961e-01) (20, 2.09577485918998718262e-01) (0, 1.33137792348861694336e-01) (1, 7.14779943227767944336e-02) (2, 4.19718682765960693359e-01) (3, 9.61299464106559753418e-02) (4, 3.38499210774898529053e-02) (5, 3.88862311840057373047e-01) (6, 4.53304141759872436523e-01) (7, 9.58220437169075012207e-02) (8, 4.48173910379409790039e-01) (9, 1.20902203023433685303e-01) (10, 6.17283070459961891174e-03) (11, 1.87926232814788818359e-01) (12, 4.39642190933227539062e-01) (13, 2.22174629569053649902e-01) (14, 2.79682278633117675781e-01) (15, 7.93661624193191528320e-02) (16, 3.92991125583648681641e-01) (17, 4.95957851409912109375e-01) (18, 7.59013229981064796448e-03) (19, 2.25010454654693603516e-01) (20, -3.64693671464920043945e-01) (0, 1.43630996346473693848e-01) (1, 7.34492987394332885742e-02) (2, 4.37474250793457031250e-01) (3, 4.03140664100646972656e-01) (4, 1.35182023048400878906e-01) (5, 9.06820371747016906738e-02) (6, 4.40802484750747680664e-01) (7, 5.67524611949920654297e-01) (8, 4.45838451385498046875e-01) (9, 4.67221379280090332031e-01) (10, 1.54016595333814620972e-02) (11, 7.14134722948074340820e-02) (12, 3.75126183032989501953e-01) (13, 5.96932582557201385498e-02) (14, 4.08903807401657104492e-01) (15, 2.02220659703016281128e-02) (16, 4.48412925004959106445e-01) (17, 3.30490758642554283142e-03) (18, 2.61466771364212036133e-01) (19, 5.65582692623138427734e-01) (20, -1.59688860177993774414e-01) (0, 4.04106795787811279297e-01) (1, 5.16379594802856445312e-01) (2, 1.35840877890586853027e-01) (3, 3.75563234090805053711e-01) (4, 1.47984206676483154297e-01) (5, 3.71162652969360351562e-01) (6, 4.40921187400817871094e-01) (7, 4.18488413095474243164e-01) (8, 5.49904167652130126953e-01) (9, 2.74554431438446044922e-01) (10, 2.63748019933700561523e-01) (11, 2.15434700250625610352e-01) (12, 2.03677758574485778809e-01) (13, 2.89345383644104003906e-01) (14, 1.20547607541084289551e-01) (15, 3.82450699806213378906e-01) (16, 1.21697321534156799316e-01) (17, 3.70182961225509643555e-01) (18, 7.09118470549583435059e-02) (19, 3.43034178018569946289e-01) (20, 2.57002592086791992188e-01) (0, 1.18823371827602386475e-01) (1, 3.96836787462234497070e-01) (2, 3.19626629352569580078e-02) (3, 3.56040269136428833008e-01) (4, 1.01226598024368286133e-01) (5, 3.11469614505767822266e-01) (6, 4.96460169553756713867e-01) (7, 5.16494572162628173828e-01) (8, 1.85140687972307205200e-03) (9, 5.32355427742004394531e-01) (10, 3.21467459201812744141e-01) (11, 4.91763353347778320312e-01) (12, 5.95155172049999237061e-02) (13, 4.60302203893661499023e-01) (14, 3.26332539319992065430e-01) (15, 4.10941809415817260742e-01) (16, 3.09260785579681396484e-01) (17, 2.78349608182907104492e-01) (18, 1.43152043223381042480e-01) (19, 5.39325922727584838867e-02) (20, -8.84928777813911437988e-02) (21, 4.28372025489807128906e-01) (22, 7.96716809272766113281e-02) (23, 4.63712841272354125977e-01) (24, 5.17671704292297363281e-01) (25, 1.82605832815170288086e-01) (26, 3.73208403587341308594e-01) (27, 4.48724776506423950195e-01) (28, 2.91954815387725830078e-01) (29, 3.61812263727188110352e-01) (30, 4.42844748497009277344e-01) (31, 8.43345001339912414551e-03) (32, 1.49613037705421447754e-01) (33, 3.52315425872802734375e-01) (34, 4.31752324104309082031e-01) (35, 1.36587023735046386719e-01) (36, 4.13838326930999755859e-01) (37, 3.98586809635162353516e-01) (38, 8.49818736314773559570e-02) (39, 2.40450873970985412598e-01) (40, 4.81513917446136474609e-01) (41, 2.98856794834136962891e-01) (21, 7.43864029645919799805e-02) (22, 4.22606617212295532227e-01) (23, -2.32622027397155761719e-03) (24, 7.57233127951622009277e-02) (25, 5.14192938804626464844e-01) (26, 1.77501305937767028809e-01) (27, 5.29089152812957763672e-01) (28, -1.15234572440385818481e-02) (29, 2.33562409877777099609e-01) (30, 4.66717392206192016602e-01) (31, 3.74025285243988037109e-01) (32, 2.77183763682842254639e-03) (33, 2.58546322584152221680e-01) (34, 8.66551548242568969727e-02) (35, 2.93364971876144409180e-01) (36, 5.46570241451263427734e-01) (37, 8.33147019147872924805e-02) (38, 3.64303588867187500000e-01) (39, 2.31882810592651367188e-01) (40, 4.02403652667999267578e-01) (41, -4.42174792289733886719e-01) (21, 3.85396987199783325195e-01) (22, 3.96134823560714721680e-01) (23, 4.94515597820281982422e-01) (24, 4.05401065945625305176e-02) (25, 2.55190134048461914062e-01) (26, 2.31002047657966613770e-01) (27, 4.88003551959991455078e-01) (28, 1.45837336778640747070e-01) (29, 3.76622587442398071289e-01) (30, 3.76215130090713500977e-01) (31, 1.60454809665679931641e-02) (32, 2.75140672922134399414e-01) (33, 1.65485590696334838867e-02) (34, 1.50818243622779846191e-01) (35, 1.08902901411056518555e-01) (36, 2.53859639167785644531e-01) (37, -1.20235793292522430420e-02) (38, 4.31645929813385009766e-01) (39, 4.33468043804168701172e-01) (40, 1.44297465682029724121e-01) (41, -1.28271117806434631348e-01) 
