FANN_FLO_2.1
num_layers=3
learning_rate=0.900000
connection_rate=1.000000
network_type=0
learning_momentum=0.900000
training_algorithm=1
train_error_function=1
train_stop_function=0
cascade_output_change_fraction=0.010000
quickprop_decay=-0.000100
quickprop_mu=1.750000
rprop_increase_factor=1.200000
rprop_decrease_factor=0.500000
rprop_delta_min=0.000000
rprop_delta_max=50.000000
rprop_delta_zero=0.100000
cascade_output_stagnation_epochs=12
cascade_candidate_change_fraction=0.010000
cascade_candidate_stagnation_epochs=12
cascade_max_out_epochs=150
cascade_min_out_epochs=50
cascade_max_cand_epochs=150
cascade_min_cand_epochs=50
cascade_num_candidate_groups=2
bit_fail_limit=3.49999994039535522461e-01
cascade_candidate_limit=1.00000000000000000000e+03
cascade_weight_multiplier=4.00000005960464477539e-01
cascade_activation_functions_count=10
cascade_activation_functions=3 5 7 8 10 11 14 15 16 17 
cascade_activation_steepnesses_count=4
cascade_activation_steepnesses=2.50000000000000000000e-01 5.00000000000000000000e-01 7.50000000000000000000e-01 1.00000000000000000000e+00 
layer_sizes=21 21 4 
scale_included=0
neurons (num_inputs, activation_function, activation_steepness)=(0, 0, 0.00000000000000000000e+00) (0, 0, 0.00000000000000000000e+00) (0, 0, 0.00000000000000000000e+00) (0, 0, 0.00000000000000000000e+00) (0, 0, 0.00000000000000000000e+00) (0, 0, 0.00000000000000000000e+00) (0, 0, 0.00000000000000000000e+00) (0, 0, 0.00000000000000000000e+00) (0, 0, 0.00000000000000000000e+00) (0, 0, 0.00000000000000000000e+00) (0, 0, 0.00000000000000000000e+00) (0, 0, 0.00000000000000000000e+00) (0, 0, 0.00000000000000000000e+00) (0, 0, 0.00000000000000000000e+00) (0, 0, 0.00000000000000000000e+00) (0, 0, 0.00000000000000000000e+00) (0, 0, 0.00000000000000000000e+00) (0, 0, 0.00000000000000000000e+00) (0, 0, 0.00000000000000000000e+00) (0, 0, 0.00000000000000000000e+00) (0, 0, 0.00000000000000000000e+00) (21, 6, 5.00000000000000000000e-01) (21, 6, 5.00000000000000000000e-01) (21, 6, 5.00000000000000000000e-01) (21, 6, 5.00000000000000000000e-01) (21, 6, 5.00000000000000000000e-01) (21, 6, 5.00000000000000000000e-01) (21, 6, 5.00000000000000000000e-01) (21, 6, 5.00000000000000000000e-01) (21, 6, 5.00000000000000000000e-01) (21, 6, 5.00000000000000000000e-01) (21, 6, 5.00000000000000000000e-01) (21, 6, 5.00000000000000000000e-01) (21, 6, 5.00000000000000000000e-01) (21, 6, 5.00000000000000000000e-01) (21, 6, 5.00000000000000000000e-01) (21, 6, 5.00000000000000000000e-01) (21, 6, 5.00000000000000000000e-01) (21, 6, 5.00000000000000000000e-01) (21, 6, 5.00000000000000000000e-01) (21, 6, 5.00000000000000000000e-01) (0, 6, 0.00000000000000000000e+00) (21, 6, 5.00000000000000000000e-01) (21, 6, 5.00000000000000000000e-01) (21, 6, 5.00000000000000000000e-01) (0, 6, 0.00000000000000000000e+00) 
connections (connected_to_neuron, weight)=(0, 5.29170155525207519531e-01) (1, 2.82866567373275756836e-01) (2, 3.68979573249816894531e-01) (3, 1.08677320182323455811e-01) (4, 1.23507544398307800293e-01) (5, 4.04213607311248779297e-01) (6, 4.93205785751342773438e-01) (7, 4.94726538658142089844e-01) (8, 5.20106673240661621094e-01) (9, 1.11648418009281158447e-01) (10, 2.01685339212417602539e-01) (11, 1.52244955301284790039e-01) (12, 2.52751141786575317383e-01) (13, 4.19751703739166259766e-01) (14, 3.77751104533672332764e-02) (15, 5.04087686538696289062e-01) (16, 5.48577010631561279297e-01) (17, 7.60745480656623840332e-02) (18, 3.60783517360687255859e-01) (19, 5.23132920265197753906e-01) (20, -2.19240099191665649414e-01) (0, 3.82190763950347900391e-01) (1, 1.07001937925815582275e-01) (2, 4.68124657869338989258e-01) (3, 4.61104094982147216797e-01) (4, 1.89356073737144470215e-01) (5, 2.79026955366134643555e-01) (6, 2.57128268480300903320e-01) (7, 9.90389212965965270996e-02) (8, 2.57521718740463256836e-01) (9, 4.01439577341079711914e-01) (10, 5.39882063865661621094e-01) (11, 4.81089919805526733398e-01) (12, 4.96136099100112915039e-01) (13, 4.51313734054565429688e-01) (14, 3.30273985862731933594e-01) (15, 8.62247019540518522263e-04) (16, 3.95783960819244384766e-01) (17, 5.15923053026199340820e-02) (18, 4.36992883682250976562e-01) (19, 9.78716090321540832520e-02) (20, 4.69981044530868530273e-01) (0, 2.44484439492225646973e-01) (1, 1.92209497094154357910e-01) (2, 1.93381562829017639160e-01) (3, 4.82492566108703613281e-01) (4, 2.69536487758159637451e-02) (5, 5.65315961837768554688e-01) (6, 4.58720892667770385742e-01) (7, 2.92179971933364868164e-01) (8, 4.24312859773635864258e-01) (9, 4.95238900184631347656e-01) (10, 3.88008296489715576172e-01) (11, 1.77558511495590209961e-01) (12, 1.16673380136489868164e-01) (13, 5.17364859580993652344e-01) (14, -2.25546793080866336823e-03) (15, 2.06012725830078125000e-01) (16, 4.66773509979248046875e-01) (17, 2.69562482833862304688e-01) (18, 2.29470506310462951660e-01) (19, 8.81233960390090942383e-02) (20, -3.54181110858917236328e-01) (0, 5.54123103618621826172e-01) (1, 5.44389486312866210938e-01) (2, 1.04041375219821929932e-01) (3, 3.66852730512619018555e-01) (4, 2.89710193872451782227e-01) (5, 4.06929582357406616211e-01) (6, 4.79482531547546386719e-01) (7, 4.63695153594017028809e-02) (8, 2.97043949365615844727e-01) (9, 2.74221668951213359833e-03) (10, 3.78790557384490966797e-01) (11, 8.79370272159576416016e-02) (12, 1.01764857769012451172e-01) (13, 5.41250407695770263672e-01) (14, 3.90047840774059295654e-02) (15, 3.10309737920761108398e-01) (16, 2.21784695982933044434e-01) (17, 1.59738421440124511719e-01) (18, 4.63778167963027954102e-01) (19, 2.53256745636463165283e-02) (20, 4.48323965072631835938e-01) (0, 2.70531505346298217773e-01) (1, 7.35393017530441284180e-02) (2, 4.13900464773178100586e-02) (3, 9.27097164094448089600e-03) (4, 2.05269366502761840820e-01) (5, 4.43369746208190917969e-01) (6, 5.83747290074825286865e-02) (7, 2.90776669979095458984e-01) (8, 1.70042276382446289062e-01) (9, 1.00369833409786224365e-01) (10, 8.55731889605522155762e-02) (11, 5.65003991127014160156e-01) (12, 2.05194652080535888672e-01) (13, 4.43768441677093505859e-01) (14, 2.57441431283950805664e-01) (15, 3.48841995000839233398e-01) (16, 3.76385539770126342773e-01) (17, 3.76106798648834228516e-01) (18, 5.36819279193878173828e-01) (19, 3.03778171539306640625e-01) (20, 5.53915679454803466797e-01) (0, 4.59321111440658569336e-01) (1, 1.69263303279876708984e-01) (2, 3.89003157615661621094e-01) (3, 3.55241209268569946289e-01) (4, 4.19218719005584716797e-01) (5, 6.22072033584117889404e-02) (6, 5.07542014122009277344e-01) (7, 4.40310716629028320312e-01) (8, 4.19764742255210876465e-02) (9, 2.37218126654624938965e-01) (10, 5.22883713245391845703e-01) (11, 1.73108801245689392090e-01) (12, 3.17810148000717163086e-01) (13, 3.64223182201385498047e-01) (14, 3.30517590045928955078e-01) (15, 3.97514641284942626953e-01) (16, 5.39949893951416015625e-01) (17, 2.47297316789627075195e-01) (18, 3.25047314167022705078e-01) (19, 3.18846583366394042969e-01) (20, -5.00048339366912841797e-01) (0, 2.43814617395401000977e-01) (1, 5.07833719253540039062e-01) (2, 4.72030699253082275391e-01) (3, 4.51751321554183959961e-01) (4, 2.29299649596214294434e-01) (5, 2.40205794572830200195e-01) (6, 1.56039103865623474121e-01) (7, 5.11366128921508789062e-01) (8, 4.51941117644309997559e-02) (9, 5.20084381103515625000e-01) (10, 3.71838450431823730469e-01) (11, 2.63939291238784790039e-01) (12, 2.56783545017242431641e-01) (13, 4.78798061609268188477e-01) (14, 5.10646522045135498047e-01) (15, 4.46825832128524780273e-01) (16, 3.28401535749435424805e-01) (17, 4.15165811777114868164e-01) (18, 5.26750266551971435547e-01) (19, 4.85960841178894042969e-01) (20, -4.42479819059371948242e-01) (0, 1.56460538506507873535e-01) (1, 1.55428752303123474121e-01) (2, 4.09161359071731567383e-01) (3, 1.87864273786544799805e-01) (4, 1.66103526949882507324e-01) (5, 2.34224170446395874023e-01) (6, 3.74356687068939208984e-01) (7, 1.02832622826099395752e-01) (8, 1.17251209914684295654e-01) (9, 3.01151406019926071167e-02) (10, 1.83156758546829223633e-01) (11, 3.78767736256122589111e-02) (12, 4.96831536293029785156e-01) (13, 6.32263496518135070801e-02) (14, 4.13004726171493530273e-01) (15, 1.01654425263404846191e-01) (16, 3.63369226455688476562e-01) (17, 1.56137630343437194824e-01) (18, 2.97231614589691162109e-01) (19, 1.46435663104057312012e-01) (20, 4.00458984076976776123e-02) (0, 5.48418872058391571045e-02) (1, 2.56326403468847274780e-02) (2, 3.84335994720458984375e-01) (3, 1.72709837555885314941e-01) (4, 5.45719504356384277344e-01) (5, 3.37683200836181640625e-01) (6, 3.65948438644409179688e-01) (7, 4.91970926523208618164e-02) (8, 4.51121628284454345703e-01) (9, 4.65437859296798706055e-01) (10, 1.20380647480487823486e-01) (11, 3.91197353601455688477e-01) (12, 3.76062721014022827148e-01) (13, 8.65779370069503784180e-02) (14, 8.02272483706474304199e-02) (15, 2.96733733266592025757e-02) (16, 5.87595365941524505615e-02) (17, 4.83401894569396972656e-01) (18, 2.11092337965965270996e-01) (19, 4.78165686130523681641e-01) (20, 4.73512440919876098633e-01) (0, 2.55031377077102661133e-01) (1, 5.37455342710018157959e-02) (2, 4.20708984136581420898e-01) (3, 3.89955908060073852539e-01) (4, 4.59388166666030883789e-01) (5, 3.72744798660278320312e-01) (6, 5.37725329399108886719e-01) (7, 2.57696986198425292969e-01) (8, 3.38539361953735351562e-01) (9, 4.38362002372741699219e-01) (10, 1.10854342579841613770e-01) (11, 4.16631340980529785156e-01) (12, 4.24984455108642578125e-01) (13, 2.37509217113256454468e-02) (14, 2.17966005206108093262e-01) (15, 2.96881437301635742188e-01) (16, 1.38108447194099426270e-01) (17, 2.55983650684356689453e-01) (18, 2.68748760223388671875e-01) (19, 4.04786139726638793945e-01) (20, 1.53243035078048706055e-01) (0, 4.09882754087448120117e-01) (1, 3.68730187416076660156e-01) (2, 2.79412090778350830078e-01) (3, 4.57235246896743774414e-01) (4, 2.54409402608871459961e-01) (5, 3.83163690567016601562e-01) (6, 3.15263479948043823242e-01) (7, 1.70081466436386108398e-01) (8, 1.88611820340156555176e-01) (9, 4.61154133081436157227e-01) (10, 4.74775314331054687500e-01) (11, 3.65422070026397705078e-01) (12, 3.97494673728942871094e-01) (13, 1.18612637743353843689e-02) (14, 4.40806865692138671875e-01) (15, 5.45616030693054199219e-01) (16, 1.03695049881935119629e-01) (17, 9.22810509800910949707e-02) (18, 4.07819896936416625977e-01) (19, 1.82671457529067993164e-01) (20, -2.93588727712631225586e-01) (0, 1.74123555421829223633e-01) (1, 3.97461771965026855469e-01) (2, 1.66312992572784423828e-01) (3, 4.28651303052902221680e-01) (4, 3.28814595937728881836e-01) (5, 4.07495886087417602539e-01) (6, 3.18682640790939331055e-01) (7, 5.45596659183502197266e-01) (8, 4.80864167213439941406e-01) (9, 9.91974025964736938477e-02) (10, 3.54155033826828002930e-01) (11, 1.41372248530387878418e-01) (12, 3.92433851957321166992e-01) (13, 3.30808460712432861328e-01) (14, 2.48113006353378295898e-01) (15, 1.03641524910926818848e-01) (16, 4.25732374191284179688e-01) (17, 5.79454712569713592529e-02) (18, 6.50803521275520324707e-02) (19, 2.98112154006958007812e-01) (20, 1.54067069292068481445e-01) (0, 1.32328629493713378906e-01) (1, 4.27283227443695068359e-01) (2, 2.30212122201919555664e-01) (3, 3.23944948613643646240e-02) (4, 3.18938255310058593750e-01) (5, 2.89353489875793457031e-01) (6, 1.15294106304645538330e-01) (7, 3.67859184741973876953e-01) (8, 2.65582680702209472656e-01) (9, 3.61690223217010498047e-01) (10, 3.54940176010131835938e-01) (11, 5.18030762672424316406e-01) (12, 4.69783216714859008789e-01) (13, 2.83979564905166625977e-01) (14, 2.83316880464553833008e-01) (15, 2.67264813184738159180e-01) (16, 4.27224069833755493164e-01) (17, 3.52940082550048828125e-01) (18, 5.08532285690307617188e-01) (19, 2.46000722050666809082e-01) (20, -3.99852469563484191895e-02) (0, 3.65152060985565185547e-01) (1, 4.08428221940994262695e-01) (2, 1.32659673690795898438e-01) (3, 1.99526041746139526367e-01) (4, 5.05213260650634765625e-01) (5, 9.68552902340888977051e-02) (6, 2.39486843347549438477e-01) (7, 4.57135587930679321289e-01) (8, 2.18290403485298156738e-01) (9, 4.43950176239013671875e-01) (10, 1.01730478927493095398e-02) (11, 3.09153109788894653320e-01) (12, 1.16624146699905395508e-01) (13, 4.23655927181243896484e-01) (14, 4.40727829933166503906e-01) (15, 1.50933653116226196289e-01) (16, 4.43473607301712036133e-01) (17, 2.36212998628616333008e-01) (18, 2.23490282893180847168e-01) (19, 5.05677282810211181641e-01) (20, -4.34874504804611206055e-01) (0, 2.33961403369903564453e-01) (1, 4.73487764596939086914e-01) (2, 2.03411668539047241211e-01) (3, 5.05868792533874511719e-01) (4, 5.63669204711914062500e-01) (5, 1.27491980791091918945e-01) (6, 2.91465252637863159180e-01) (7, 2.29441404342651367188e-01) (8, 4.45030033588409423828e-01) (9, 4.29094821214675903320e-01) (10, 2.27634403854608535767e-02) (11, 4.00137037038803100586e-01) (12, 3.63212376832962036133e-01) (13, 5.40156066417694091797e-01) (14, 8.92065688967704772949e-02) (15, 2.77655988931655883789e-01) (16, 2.84557670354843139648e-01) (17, 4.63494360446929931641e-01) (18, 4.49648499488830566406e-01) (19, 2.30501666665077209473e-01) (20, -4.36054527759552001953e-01) (0, 4.21692907810211181641e-01) (1, 3.82906854152679443359e-01) (2, 1.03550918400287628174e-01) (3, 3.33784461021423339844e-01) (4, 2.33218625187873840332e-01) (5, 4.60164189338684082031e-01) (6, 3.48364830017089843750e-01) (7, 1.81595236063003540039e-01) (8, 2.22083985805511474609e-01) (9, 1.26153836026787757874e-02) (10, 5.20406365394592285156e-01) (11, 4.74463403224945068359e-01) (12, 1.38381183147430419922e-01) (13, 4.57025915384292602539e-01) (14, 2.34138265252113342285e-01) (15, 4.13708657026290893555e-01) (16, 3.10611724853515625000e-01) (17, 5.32853722572326660156e-01) (18, 2.94445902109146118164e-02) (19, 3.51542234420776367188e-01) (20, 6.79704621434211730957e-02) (0, 3.47143441438674926758e-01) (1, 2.62350201606750488281e-01) (2, 4.57998007535934448242e-01) (3, 1.44528523087501525879e-01) (4, 3.01521241664886474609e-01) (5, 9.42627638578414916992e-02) (6, 2.64239013195037841797e-01) (7, 5.46903908252716064453e-01) (8, 3.24713915586471557617e-01) (9, 7.20464959740638732910e-02) (10, 7.69713968038558959961e-02) (11, 1.01701110601425170898e-01) (12, 1.98028340935707092285e-01) (13, 2.61963039636611938477e-01) (14, 5.66516928374767303467e-02) (15, 4.23077642917633056641e-01) (16, 5.15154957771301269531e-01) (17, 1.04797547683119773865e-02) (18, 2.47750371694564819336e-01) (19, 2.76445418596267700195e-01) (20, -4.79821413755416870117e-01) (0, 5.90649954974651336670e-02) (1, 4.20887380838394165039e-01) (2, 5.60158312320709228516e-01) (3, 4.80170547962188720703e-01) (4, 4.82795417308807373047e-01) (5, 2.36400932073593139648e-01) (6, 1.69907584786415100098e-02) (7, 3.86407732963562011719e-01) (8, 5.14888048171997070312e-01) (9, 3.53379249572753906250e-01) (10, 3.40185090899467468262e-02) (11, 2.76272278279066085815e-02) (12, 1.17188744246959686279e-01) (13, 5.20856022834777832031e-01) (14, 5.66009163856506347656e-01) (15, 4.54579383134841918945e-01) (16, 3.37223649024963378906e-01) (17, 3.00513684749603271484e-01) (18, 1.01874619722366333008e-01) (19, 2.51707851886749267578e-01) (20, -4.42779630422592163086e-01) (0, 9.34413149952888488770e-02) (1, 1.86544582247734069824e-01) (2, 3.08350354433059692383e-01) (3, 2.60123252868652343750e-01) (4, 1.05161871761083602905e-02) (5, 4.55007195472717285156e-01) (6, 2.52964735031127929688e-01) (7, 3.04844886064529418945e-01) (8, 4.67537075281143188477e-01) (9, 2.67923980951309204102e-01) (10, 3.99049729108810424805e-01) (11, 4.66530829668045043945e-01) (12, 1.34135276079177856445e-01) (13, 1.93589866161346435547e-01) (14, 1.82709559798240661621e-01) (15, 3.55291724205017089844e-01) (16, 1.83435782790184020996e-01) (17, 5.66564261913299560547e-01) (18, 1.13023370504379272461e-01) (19, 5.66793024539947509766e-01) (20, -4.07178640365600585938e-01) (0, 5.23880600929260253906e-01) (1, 4.39431935548782348633e-01) (2, 3.73180389404296875000e-01) (3, 1.39982238411903381348e-01) (4, 4.95881974697113037109e-01) (5, 1.36080116033554077148e-01) (6, 4.54622149467468261719e-01) (7, 1.28371521830558776855e-01) (8, 3.44196170568466186523e-01) (9, 2.33896836638450622559e-01) (10, 1.14912666380405426025e-01) (11, 3.87405782938003540039e-01) (12, 4.16148126125335693359e-01) (13, 4.60683941841125488281e-01) (14, 3.80067348480224609375e-01) (15, 3.09298783540725708008e-01) (16, 3.67429316043853759766e-01) (17, 2.06696353852748870850e-02) (18, 2.07439046353101730347e-02) (19, 4.55540657043457031250e-01) (20, -4.37867701053619384766e-01) (21, 3.49553465843200683594e-01) (22, -6.72131264582276344299e-03) (23, 5.46284675598144531250e-01) (24, 4.06462848186492919922e-01) (25, 5.19527912139892578125e-01) (26, 2.83899344503879547119e-02) (27, 2.98766851425170898438e-01) (28, 4.70523446798324584961e-01) (29, 4.57955837249755859375e-01) (30, 2.79900312423706054688e-01) (31, 1.16461530327796936035e-01) (32, 4.53708842396736145020e-02) (33, 4.15386170148849487305e-01) (34, 2.23943740129470825195e-01) (35, 5.29955565929412841797e-01) (36, 2.73884356021881103516e-01) (37, 5.50103545188903808594e-01) (38, 2.19533890485763549805e-01) (39, 3.82708340883255004883e-01) (40, 2.27459356188774108887e-01) (41, 1.87382608652114868164e-01) (21, 5.45550823211669921875e-01) (22, 1.17476265877485275269e-02) (23, 4.00697201490402221680e-01) (24, 2.60348320007324218750e-01) (25, 3.92299115657806396484e-01) (26, 2.12660029530525207520e-01) (27, 5.20173013210296630859e-01) (28, 4.27190929651260375977e-01) (29, 4.08536732196807861328e-01) (30, 3.72620671987533569336e-01) (31, 1.47255994379520416260e-02) (32, 4.18639667332172393799e-02) (33, 1.33867403492331504822e-02) (34, 4.49091732501983642578e-01) (35, 2.46389493346214294434e-01) (36, 3.91575813293457031250e-01) (37, 7.34763815999031066895e-02) (38, 4.01468515396118164062e-01) (39, 8.03085230290889739990e-03) (40, 4.91375893354415893555e-01) (41, 9.05332639813423156738e-02) (21, 4.02721107006072998047e-01) (22, 1.38249188661575317383e-01) (23, 4.39216941595077514648e-01) (24, -6.82671181857585906982e-03) (25, 2.43358463048934936523e-01) (26, 8.96613448858261108398e-02) (27, 2.08244115114212036133e-01) (28, 1.78619578480720520020e-01) (29, 3.56586337089538574219e-01) (30, 1.71074777841567993164e-01) (31, 2.53841429948806762695e-01) (32, 4.79030787944793701172e-01) (33, 3.73962186276912689209e-02) (34, 4.64715361595153808594e-01) (35, -8.19660350680351257324e-03) (36, 2.58085429668426513672e-02) (37, 4.82644319534301757812e-01) (38, 5.07355093955993652344e-01) (39, 1.70675329864025115967e-02) (40, 6.81134313344955444336e-03) (41, -2.56458163261413574219e-01) 
